digraph Tree {
node [shape=box] ;
0 [label="X[3] <= 0.5\ngini = 0.5\nsamples = 3750\nvalue = [1859, 1891]"] ;
1 [label="X[6] <= 0.5\ngini = 0.215\nsamples = 1873\nvalue = [1643, 230]"] ;
0 -> 1 [labeldistance=2.5, labelangle=45, headlabel="True"] ;
2 [label="X[1] <= 14.35\ngini = 0.035\nsamples = 1463\nvalue = [1437, 26]"] ;
1 -> 2 ;
3 [label="X[2] <= 6.7\ngini = 0.02\nsamples = 1452\nvalue = [1437, 15]"] ;
2 -> 3 ;
4 [label="X[5] <= 0.5\ngini = 0.018\nsamples = 1450\nvalue = [1437, 13]"] ;
3 -> 4 ;
5 [label="X[1] <= 14.15\ngini = 0.002\nsamples = 1268\nvalue = [1267, 1]"] ;
4 -> 5 ;
6 [label="gini = 0.0\nsamples = 1185\nvalue = [1185, 0]"] ;
5 -> 6 ;
7 [label="X[4] <= 0.5\ngini = 0.024\nsamples = 83\nvalue = [82, 1]"] ;
5 -> 7 ;
8 [label="gini = 0.0\nsamples = 65\nvalue = [65, 0]"] ;
7 -> 8 ;
9 [label="X[2] <= 6.0\ngini = 0.105\nsamples = 18\nvalue = [17, 1]"] ;
7 -> 9 ;
10 [label="X[2] <= 5.8\ngini = 0.198\nsamples = 9\nvalue = [8, 1]"] ;
9 -> 10 ;
11 [label="gini = 0.0\nsamples = 8\nvalue = [8, 0]"] ;
10 -> 11 ;
12 [label="gini = 0.0\nsamples = 1\nvalue = [0, 1]"] ;
10 -> 12 ;
13 [label="gini = 0.0\nsamples = 9\nvalue = [9, 0]"] ;
9 -> 13 ;
14 [label="X[4] <= 0.5\ngini = 0.123\nsamples = 182\nvalue = [170, 12]"] ;
4 -> 14 ;
15 [label="X[2] <= 5.35\ngini = 0.014\nsamples = 137\nvalue = [136, 1]"] ;
14 -> 15 ;
16 [label="X[1] <= 13.55\ngini = 0.071\nsamples = 27\nvalue = [26, 1]"] ;
15 -> 16 ;
17 [label="gini = 0.0\nsamples = 19\nvalue = [19, 0]"] ;
16 -> 17 ;
18 [label="X[1] <= 13.65\ngini = 0.219\nsamples = 8\nvalue = [7, 1]"] ;
16 -> 18 ;
19 [label="gini = 0.0\nsamples = 1\nvalue = [0, 1]"] ;
18 -> 19 ;
20 [label="gini = 0.0\nsamples = 7\nvalue = [7, 0]"] ;
18 -> 20 ;
21 [label="gini = 0.0\nsamples = 110\nvalue = [110, 0]"] ;
15 -> 21 ;
22 [label="X[1] <= 12.75\ngini = 0.369\nsamples = 45\nvalue = [34, 11]"] ;
14 -> 22 ;
23 [label="X[1] <= 12.15\ngini = 0.208\nsamples = 17\nvalue = [15, 2]"] ;
22 -> 23 ;
24 [label="X[2] <= 5.6\ngini = 0.408\nsamples = 7\nvalue = [5, 2]"] ;
23 -> 24 ;
25 [label="X[1] <= 12.0\ngini = 0.5\nsamples = 2\nvalue = [1, 1]"] ;
24 -> 25 ;
26 [label="gini = 0.0\nsamples = 1\nvalue = [1, 0]"] ;
25 -> 26 ;
27 [label="gini = 0.0\nsamples = 1\nvalue = [0, 1]"] ;
25 -> 27 ;
28 [label="X[2] <= 6.35\ngini = 0.32\nsamples = 5\nvalue = [4, 1]"] ;
24 -> 28 ;
29 [label="gini = 0.0\nsamples = 2\nvalue = [2, 0]"] ;
28 -> 29 ;
30 [label="X[1] <= 11.85\ngini = 0.444\nsamples = 3\nvalue = [2, 1]"] ;
28 -> 30 ;
31 [label="gini = 0.5\nsamples = 2\nvalue = [1, 1]"] ;
30 -> 31 ;
32 [label="gini = 0.0\nsamples = 1\nvalue = [1, 0]"] ;
30 -> 32 ;
33 [label="gini = 0.0\nsamples = 10\nvalue = [10, 0]"] ;
23 -> 33 ;
34 [label="X[1] <= 12.85\ngini = 0.436\nsamples = 28\nvalue = [19, 9]"] ;
22 -> 34 ;
35 [label="gini = 0.0\nsamples = 2\nvalue = [0, 2]"] ;
34 -> 35 ;
36 [label="X[2] <= 5.35\ngini = 0.393\nsamples = 26\nvalue = [19, 7]"] ;
34 -> 36 ;
37 [label="X[2] <= 5.15\ngini = 0.48\nsamples = 5\nvalue = [2, 3]"] ;
36 -> 37 ;
38 [label="gini = 0.0\nsamples = 1\nvalue = [0, 1]"] ;
37 -> 38 ;
39 [label="X[0] <= 0.5\ngini = 0.5\nsamples = 4\nvalue = [2, 2]"] ;
37 -> 39 ;
40 [label="gini = 0.0\nsamples = 1\nvalue = [0, 1]"] ;
39 -> 40 ;
41 [label="X[1] <= 13.65\ngini = 0.444\nsamples = 3\nvalue = [2, 1]"] ;
39 -> 41 ;
42 [label="gini = 0.0\nsamples = 2\nvalue = [2, 0]"] ;
41 -> 42 ;
43 [label="gini = 0.0\nsamples = 1\nvalue = [0, 1]"] ;
41 -> 43 ;
44 [label="X[2] <= 5.65\ngini = 0.308\nsamples = 21\nvalue = [17, 4]"] ;
36 -> 44 ;
45 [label="gini = 0.0\nsamples = 8\nvalue = [8, 0]"] ;
44 -> 45 ;
46 [label="X[2] <= 5.85\ngini = 0.426\nsamples = 13\nvalue = [9, 4]"] ;
44 -> 46 ;
47 [label="gini = 0.0\nsamples = 2\nvalue = [0, 2]"] ;
46 -> 47 ;
48 [label="X[1] <= 13.15\ngini = 0.298\nsamples = 11\nvalue = [9, 2]"] ;
46 -> 48 ;
49 [label="X[2] <= 6.4\ngini = 0.5\nsamples = 2\nvalue = [1, 1]"] ;
48 -> 49 ;
50 [label="gini = 0.0\nsamples = 1\nvalue = [0, 1]"] ;
49 -> 50 ;
51 [label="gini = 0.0\nsamples = 1\nvalue = [1, 0]"] ;
49 -> 51 ;
52 [label="X[1] <= 13.9\ngini = 0.198\nsamples = 9\nvalue = [8, 1]"] ;
48 -> 52 ;
53 [label="gini = 0.0\nsamples = 7\nvalue = [7, 0]"] ;
52 -> 53 ;
54 [label="X[1] <= 14.05\ngini = 0.5\nsamples = 2\nvalue = [1, 1]"] ;
52 -> 54 ;
55 [label="gini = 0.0\nsamples = 1\nvalue = [0, 1]"] ;
54 -> 55 ;
56 [label="gini = 0.0\nsamples = 1\nvalue = [1, 0]"] ;
54 -> 56 ;
57 [label="gini = 0.0\nsamples = 2\nvalue = [0, 2]"] ;
3 -> 57 ;
58 [label="gini = 0.0\nsamples = 11\nvalue = [0, 11]"] ;
2 -> 58 ;
59 [label="X[5] <= 0.5\ngini = 0.5\nsamples = 410\nvalue = [206, 204]"] ;
1 -> 59 ;
60 [label="X[4] <= 0.5\ngini = 0.222\nsamples = 204\nvalue = [178, 26]"] ;
59 -> 60 ;
61 [label="X[1] <= 14.6\ngini = 0.037\nsamples = 158\nvalue = [155, 3]"] ;
60 -> 61 ;
62 [label="X[1] <= 14.05\ngini = 0.013\nsamples = 156\nvalue = [155, 1]"] ;
61 -> 62 ;
63 [label="gini = 0.0\nsamples = 143\nvalue = [143, 0]"] ;
62 -> 63 ;
64 [label="X[2] <= 6.15\ngini = 0.142\nsamples = 13\nvalue = [12, 1]"] ;
62 -> 64 ;
65 [label="gini = 0.0\nsamples = 8\nvalue = [8, 0]"] ;
64 -> 65 ;
66 [label="X[1] <= 14.15\ngini = 0.32\nsamples = 5\nvalue = [4, 1]"] ;
64 -> 66 ;
67 [label="X[2] <= 6.35\ngini = 0.444\nsamples = 3\nvalue = [2, 1]"] ;
66 -> 67 ;
68 [label="gini = 0.5\nsamples = 2\nvalue = [1, 1]"] ;
67 -> 68 ;
69 [label="gini = 0.0\nsamples = 1\nvalue = [1, 0]"] ;
67 -> 69 ;
70 [label="gini = 0.0\nsamples = 2\nvalue = [2, 0]"] ;
66 -> 70 ;
71 [label="gini = 0.0\nsamples = 2\nvalue = [0, 2]"] ;
61 -> 71 ;
72 [label="X[2] <= 6.55\ngini = 0.5\nsamples = 46\nvalue = [23, 23]"] ;
60 -> 72 ;
73 [label="X[1] <= 14.35\ngini = 0.478\nsamples = 38\nvalue = [23, 15]"] ;
72 -> 73 ;
74 [label="X[2] <= 5.65\ngini = 0.422\nsamples = 33\nvalue = [23, 10]"] ;
73 -> 74 ;
75 [label="X[1] <= 11.65\ngini = 0.5\nsamples = 14\nvalue = [7, 7]"] ;
74 -> 75 ;
76 [label="gini = 0.0\nsamples = 2\nvalue = [2, 0]"] ;
75 -> 76 ;
77 [label="X[1] <= 12.75\ngini = 0.486\nsamples = 12\nvalue = [5, 7]"] ;
75 -> 77 ;
78 [label="gini = 0.0\nsamples = 4\nvalue = [0, 4]"] ;
77 -> 78 ;
79 [label="X[0] <= 0.5\ngini = 0.469\nsamples = 8\nvalue = [5, 3]"] ;
77 -> 79 ;
80 [label="gini = 0.0\nsamples = 1\nvalue = [0, 1]"] ;
79 -> 80 ;
81 [label="X[2] <= 5.35\ngini = 0.408\nsamples = 7\nvalue = [5, 2]"] ;
79 -> 81 ;
82 [label="gini = 0.0\nsamples = 2\nvalue = [2, 0]"] ;
81 -> 82 ;
83 [label="X[1] <= 12.95\ngini = 0.48\nsamples = 5\nvalue = [3, 2]"] ;
81 -> 83 ;
84 [label="gini = 0.0\nsamples = 1\nvalue = [0, 1]"] ;
83 -> 84 ;
85 [label="X[1] <= 13.5\ngini = 0.375\nsamples = 4\nvalue = [3, 1]"] ;
83 -> 85 ;
86 [label="gini = 0.0\nsamples = 2\nvalue = [2, 0]"] ;
85 -> 86 ;
87 [label="X[2] <= 5.45\ngini = 0.5\nsamples = 2\nvalue = [1, 1]"] ;
85 -> 87 ;
88 [label="gini = 0.0\nsamples = 1\nvalue = [0, 1]"] ;
87 -> 88 ;
89 [label="gini = 0.0\nsamples = 1\nvalue = [1, 0]"] ;
87 -> 89 ;
90 [label="X[1] <= 13.2\ngini = 0.266\nsamples = 19\nvalue = [16, 3]"] ;
74 -> 90 ;
91 [label="gini = 0.0\nsamples = 5\nvalue = [5, 0]"] ;
90 -> 91 ;
92 [label="X[2] <= 6.05\ngini = 0.337\nsamples = 14\nvalue = [11, 3]"] ;
90 -> 92 ;
93 [label="X[1] <= 13.4\ngini = 0.198\nsamples = 9\nvalue = [8, 1]"] ;
92 -> 93 ;
94 [label="X[2] <= 5.85\ngini = 0.5\nsamples = 2\nvalue = [1, 1]"] ;
93 -> 94 ;
95 [label="gini = 0.0\nsamples = 1\nvalue = [0, 1]"] ;
94 -> 95 ;
96 [label="gini = 0.0\nsamples = 1\nvalue = [1, 0]"] ;
94 -> 96 ;
97 [label="gini = 0.0\nsamples = 7\nvalue = [7, 0]"] ;
93 -> 97 ;
98 [label="X[0] <= 0.5\ngini = 0.48\nsamples = 5\nvalue = [3, 2]"] ;
92 -> 98 ;
99 [label="gini = 0.0\nsamples = 2\nvalue = [2, 0]"] ;
98 -> 99 ;
100 [label="X[2] <= 6.2\ngini = 0.444\nsamples = 3\nvalue = [1, 2]"] ;
98 -> 100 ;
101 [label="gini = 0.0\nsamples = 1\nvalue = [0, 1]"] ;
100 -> 101 ;
102 [label="X[2] <= 6.35\ngini = 0.5\nsamples = 2\nvalue = [1, 1]"] ;
100 -> 102 ;
103 [label="gini = 0.0\nsamples = 1\nvalue = [1, 0]"] ;
102 -> 103 ;
104 [label="gini = 0.0\nsamples = 1\nvalue = [0, 1]"] ;
102 -> 104 ;
105 [label="gini = 0.0\nsamples = 5\nvalue = [0, 5]"] ;
73 -> 105 ;
106 [label="gini = 0.0\nsamples = 8\nvalue = [0, 8]"] ;
72 -> 106 ;
107 [label="X[4] <= 0.5\ngini = 0.235\nsamples = 206\nvalue = [28, 178]"] ;
59 -> 107 ;
108 [label="X[1] <= 14.4\ngini = 0.499\nsamples = 56\nvalue = [27, 29]"] ;
107 -> 108 ;
109 [label="X[2] <= 6.65\ngini = 0.474\nsamples = 44\nvalue = [27, 17]"] ;
108 -> 109 ;
110 [label="X[0] <= 0.5\ngini = 0.411\nsamples = 38\nvalue = [27, 11]"] ;
109 -> 110 ;
111 [label="X[1] <= 12.45\ngini = 0.49\nsamples = 7\nvalue = [3, 4]"] ;
110 -> 111 ;
112 [label="gini = 0.0\nsamples = 2\nvalue = [2, 0]"] ;
111 -> 112 ;
113 [label="X[2] <= 6.45\ngini = 0.32\nsamples = 5\nvalue = [1, 4]"] ;
111 -> 113 ;
114 [label="gini = 0.0\nsamples = 4\nvalue = [0, 4]"] ;
113 -> 114 ;
115 [label="gini = 0.0\nsamples = 1\nvalue = [1, 0]"] ;
113 -> 115 ;
116 [label="X[1] <= 12.15\ngini = 0.35\nsamples = 31\nvalue = [24, 7]"] ;
110 -> 116 ;
117 [label="X[2] <= 5.85\ngini = 0.496\nsamples = 11\nvalue = [6, 5]"] ;
116 -> 117 ;
118 [label="gini = 0.0\nsamples = 5\nvalue = [5, 0]"] ;
117 -> 118 ;
119 [label="X[2] <= 6.1\ngini = 0.278\nsamples = 6\nvalue = [1, 5]"] ;
117 -> 119 ;
120 [label="gini = 0.0\nsamples = 3\nvalue = [0, 3]"] ;
119 -> 120 ;
121 [label="X[1] <= 11.55\ngini = 0.444\nsamples = 3\nvalue = [1, 2]"] ;
119 -> 121 ;
122 [label="gini = 0.0\nsamples = 1\nvalue = [0, 1]"] ;
121 -> 122 ;
123 [label="X[1] <= 11.75\ngini = 0.5\nsamples = 2\nvalue = [1, 1]"] ;
121 -> 123 ;
124 [label="gini = 0.0\nsamples = 1\nvalue = [1, 0]"] ;
123 -> 124 ;
125 [label="gini = 0.0\nsamples = 1\nvalue = [0, 1]"] ;
123 -> 125 ;
126 [label="X[1] <= 13.75\ngini = 0.18\nsamples = 20\nvalue = [18, 2]"] ;
116 -> 126 ;
127 [label="gini = 0.0\nsamples = 14\nvalue = [14, 0]"] ;
126 -> 127 ;
128 [label="X[1] <= 13.85\ngini = 0.444\nsamples = 6\nvalue = [4, 2]"] ;
126 -> 128 ;
129 [label="gini = 0.0\nsamples = 1\nvalue = [0, 1]"] ;
128 -> 129 ;
130 [label="X[2] <= 5.9\ngini = 0.32\nsamples = 5\nvalue = [4, 1]"] ;
128 -> 130 ;
131 [label="gini = 0.0\nsamples = 2\nvalue = [2, 0]"] ;
130 -> 131 ;
132 [label="X[1] <= 13.95\ngini = 0.444\nsamples = 3\nvalue = [2, 1]"] ;
130 -> 132 ;
133 [label="gini = 0.0\nsamples = 1\nvalue = [1, 0]"] ;
132 -> 133 ;
134 [label="X[1] <= 14.1\ngini = 0.5\nsamples = 2\nvalue = [1, 1]"] ;
132 -> 134 ;
135 [label="gini = 0.0\nsamples = 1\nvalue = [0, 1]"] ;
134 -> 135 ;
136 [label="gini = 0.0\nsamples = 1\nvalue = [1, 0]"] ;
134 -> 136 ;
137 [label="gini = 0.0\nsamples = 6\nvalue = [0, 6]"] ;
109 -> 137 ;
138 [label="gini = 0.0\nsamples = 12\nvalue = [0, 12]"] ;
108 -> 138 ;
139 [label="X[1] <= 11.85\ngini = 0.013\nsamples = 150\nvalue = [1, 149]"] ;
107 -> 139 ;
140 [label="X[1] <= 11.75\ngini = 0.133\nsamples = 14\nvalue = [1, 13]"] ;
139 -> 140 ;
141 [label="gini = 0.0\nsamples = 11\nvalue = [0, 11]"] ;
140 -> 141 ;
142 [label="X[2] <= 5.8\ngini = 0.444\nsamples = 3\nvalue = [1, 2]"] ;
140 -> 142 ;
143 [label="gini = 0.0\nsamples = 1\nvalue = [0, 1]"] ;
142 -> 143 ;
144 [label="X[2] <= 6.35\ngini = 0.5\nsamples = 2\nvalue = [1, 1]"] ;
142 -> 144 ;
145 [label="gini = 0.0\nsamples = 1\nvalue = [1, 0]"] ;
144 -> 145 ;
146 [label="gini = 0.0\nsamples = 1\nvalue = [0, 1]"] ;
144 -> 146 ;
147 [label="gini = 0.0\nsamples = 136\nvalue = [0, 136]"] ;
139 -> 147 ;
148 [label="X[4] <= 0.5\ngini = 0.204\nsamples = 1877\nvalue = [216, 1661]"] ;
0 -> 148 [labeldistance=2.5, labelangle=-45, headlabel="False"] ;
149 [label="X[6] <= 0.5\ngini = 0.5\nsamples = 392\nvalue = [196, 196]"] ;
148 -> 149 ;
150 [label="X[5] <= 0.5\ngini = 0.224\nsamples = 202\nvalue = [176, 26]"] ;
149 -> 150 ;
151 [label="X[2] <= 6.6\ngini = 0.048\nsamples = 162\nvalue = [158, 4]"] ;
150 -> 151 ;
152 [label="X[1] <= 13.65\ngini = 0.012\nsamples = 159\nvalue = [158, 1]"] ;
151 -> 152 ;
153 [label="gini = 0.0\nsamples = 128\nvalue = [128, 0]"] ;
152 -> 153 ;
154 [label="X[1] <= 13.75\ngini = 0.062\nsamples = 31\nvalue = [30, 1]"] ;
152 -> 154 ;
155 [label="X[2] <= 6.0\ngini = 0.219\nsamples = 8\nvalue = [7, 1]"] ;
154 -> 155 ;
156 [label="X[2] <= 5.85\ngini = 0.32\nsamples = 5\nvalue = [4, 1]"] ;
155 -> 156 ;
157 [label="gini = 0.0\nsamples = 2\nvalue = [2, 0]"] ;
156 -> 157 ;
158 [label="gini = 0.444\nsamples = 3\nvalue = [2, 1]"] ;
156 -> 158 ;
159 [label="gini = 0.0\nsamples = 3\nvalue = [3, 0]"] ;
155 -> 159 ;
160 [label="gini = 0.0\nsamples = 23\nvalue = [23, 0]"] ;
154 -> 160 ;
161 [label="gini = 0.0\nsamples = 3\nvalue = [0, 3]"] ;
151 -> 161 ;
162 [label="X[2] <= 6.55\ngini = 0.495\nsamples = 40\nvalue = [18, 22]"] ;
150 -> 162 ;
163 [label="X[1] <= 13.75\ngini = 0.496\nsamples = 33\nvalue = [18, 15]"] ;
162 -> 163 ;
164 [label="X[1] <= 13.35\ngini = 0.453\nsamples = 26\nvalue = [17, 9]"] ;
163 -> 164 ;
165 [label="X[1] <= 13.25\ngini = 0.483\nsamples = 22\nvalue = [13, 9]"] ;
164 -> 165 ;
166 [label="X[0] <= 0.5\ngini = 0.432\nsamples = 19\nvalue = [13, 6]"] ;
165 -> 166 ;
167 [label="X[1] <= 12.45\ngini = 0.375\nsamples = 4\nvalue = [1, 3]"] ;
166 -> 167 ;
168 [label="gini = 0.0\nsamples = 2\nvalue = [0, 2]"] ;
167 -> 168 ;
169 [label="X[1] <= 12.75\ngini = 0.5\nsamples = 2\nvalue = [1, 1]"] ;
167 -> 169 ;
170 [label="gini = 0.0\nsamples = 1\nvalue = [1, 0]"] ;
169 -> 170 ;
171 [label="gini = 0.0\nsamples = 1\nvalue = [0, 1]"] ;
169 -> 171 ;
172 [label="X[2] <= 6.45\ngini = 0.32\nsamples = 15\nvalue = [12, 3]"] ;
166 -> 172 ;
173 [label="X[2] <= 5.8\ngini = 0.245\nsamples = 14\nvalue = [12, 2]"] ;
172 -> 173 ;
174 [label="X[2] <= 5.65\ngini = 0.375\nsamples = 8\nvalue = [6, 2]"] ;
173 -> 174 ;
175 [label="X[1] <= 12.45\ngini = 0.278\nsamples = 6\nvalue = [5, 1]"] ;
174 -> 175 ;
176 [label="gini = 0.0\nsamples = 5\nvalue = [5, 0]"] ;
175 -> 176 ;
177 [label="gini = 0.0\nsamples = 1\nvalue = [0, 1]"] ;
175 -> 177 ;
178 [label="X[1] <= 12.2\ngini = 0.5\nsamples = 2\nvalue = [1, 1]"] ;
174 -> 178 ;
179 [label="gini = 0.0\nsamples = 1\nvalue = [0, 1]"] ;
178 -> 179 ;
180 [label="gini = 0.0\nsamples = 1\nvalue = [1, 0]"] ;
178 -> 180 ;
181 [label="gini = 0.0\nsamples = 6\nvalue = [6, 0]"] ;
173 -> 181 ;
182 [label="gini = 0.0\nsamples = 1\nvalue = [0, 1]"] ;
172 -> 182 ;
183 [label="gini = 0.0\nsamples = 3\nvalue = [0, 3]"] ;
165 -> 183 ;
184 [label="gini = 0.0\nsamples = 4\nvalue = [4, 0]"] ;
164 -> 184 ;
185 [label="X[2] <= 6.25\ngini = 0.245\nsamples = 7\nvalue = [1, 6]"] ;
163 -> 185 ;
186 [label="gini = 0.0\nsamples = 6\nvalue = [0, 6]"] ;
185 -> 186 ;
187 [label="gini = 0.0\nsamples = 1\nvalue = [1, 0]"] ;
185 -> 187 ;
188 [label="gini = 0.0\nsamples = 7\nvalue = [0, 7]"] ;
162 -> 188 ;
189 [label="X[5] <= 0.5\ngini = 0.188\nsamples = 190\nvalue = [20, 170]"] ;
149 -> 189 ;
190 [label="X[2] <= 6.55\ngini = 0.49\nsamples = 42\nvalue = [18, 24]"] ;
189 -> 190 ;
191 [label="X[1] <= 14.35\ngini = 0.498\nsamples = 34\nvalue = [18, 16]"] ;
190 -> 191 ;
192 [label="X[2] <= 5.65\ngini = 0.471\nsamples = 29\nvalue = [18, 11]"] ;
191 -> 192 ;
193 [label="X[1] <= 12.2\ngini = 0.278\nsamples = 12\nvalue = [10, 2]"] ;
192 -> 193 ;
194 [label="X[1] <= 11.7\ngini = 0.5\nsamples = 4\nvalue = [2, 2]"] ;
193 -> 194 ;
195 [label="gini = 0.0\nsamples = 1\nvalue = [1, 0]"] ;
194 -> 195 ;
196 [label="X[2] <= 5.25\ngini = 0.444\nsamples = 3\nvalue = [1, 2]"] ;
194 -> 196 ;
197 [label="gini = 0.0\nsamples = 1\nvalue = [0, 1]"] ;
196 -> 197 ;
198 [label="X[0] <= 0.5\ngini = 0.5\nsamples = 2\nvalue = [1, 1]"] ;
196 -> 198 ;
199 [label="gini = 0.0\nsamples = 1\nvalue = [0, 1]"] ;
198 -> 199 ;
200 [label="gini = 0.0\nsamples = 1\nvalue = [1, 0]"] ;
198 -> 200 ;
201 [label="gini = 0.0\nsamples = 8\nvalue = [8, 0]"] ;
193 -> 201 ;
202 [label="X[2] <= 5.95\ngini = 0.498\nsamples = 17\nvalue = [8, 9]"] ;
192 -> 202 ;
203 [label="gini = 0.0\nsamples = 5\nvalue = [0, 5]"] ;
202 -> 203 ;
204 [label="X[2] <= 6.35\ngini = 0.444\nsamples = 12\nvalue = [8, 4]"] ;
202 -> 204 ;
205 [label="X[2] <= 6.15\ngini = 0.5\nsamples = 8\nvalue = [4, 4]"] ;
204 -> 205 ;
206 [label="gini = 0.0\nsamples = 2\nvalue = [2, 0]"] ;
205 -> 206 ;
207 [label="X[1] <= 13.05\ngini = 0.444\nsamples = 6\nvalue = [2, 4]"] ;
205 -> 207 ;
208 [label="X[0] <= 0.5\ngini = 0.444\nsamples = 3\nvalue = [2, 1]"] ;
207 -> 208 ;
209 [label="gini = 0.0\nsamples = 1\nvalue = [1, 0]"] ;
208 -> 209 ;
210 [label="X[1] <= 11.6\ngini = 0.5\nsamples = 2\nvalue = [1, 1]"] ;
208 -> 210 ;
211 [label="gini = 0.0\nsamples = 1\nvalue = [1, 0]"] ;
210 -> 211 ;
212 [label="gini = 0.0\nsamples = 1\nvalue = [0, 1]"] ;
210 -> 212 ;
213 [label="gini = 0.0\nsamples = 3\nvalue = [0, 3]"] ;
207 -> 213 ;
214 [label="gini = 0.0\nsamples = 4\nvalue = [4, 0]"] ;
204 -> 214 ;
215 [label="gini = 0.0\nsamples = 5\nvalue = [0, 5]"] ;
191 -> 215 ;
216 [label="gini = 0.0\nsamples = 8\nvalue = [0, 8]"] ;
190 -> 216 ;
217 [label="X[1] <= 11.95\ngini = 0.027\nsamples = 148\nvalue = [2, 146]"] ;
189 -> 217 ;
218 [label="X[1] <= 11.7\ngini = 0.165\nsamples = 22\nvalue = [2, 20]"] ;
217 -> 218 ;
219 [label="gini = 0.0\nsamples = 7\nvalue = [0, 7]"] ;
218 -> 219 ;
220 [label="X[2] <= 6.6\ngini = 0.231\nsamples = 15\nvalue = [2, 13]"] ;
218 -> 220 ;
221 [label="X[2] <= 6.3\ngini = 0.346\nsamples = 9\nvalue = [2, 7]"] ;
220 -> 221 ;
222 [label="X[1] <= 11.85\ngini = 0.219\nsamples = 8\nvalue = [1, 7]"] ;
221 -> 222 ;
223 [label="gini = 0.0\nsamples = 4\nvalue = [0, 4]"] ;
222 -> 223 ;
224 [label="X[2] <= 5.35\ngini = 0.375\nsamples = 4\nvalue = [1, 3]"] ;
222 -> 224 ;
225 [label="gini = 0.0\nsamples = 1\nvalue = [0, 1]"] ;
224 -> 225 ;
226 [label="X[2] <= 5.6\ngini = 0.444\nsamples = 3\nvalue = [1, 2]"] ;
224 -> 226 ;
227 [label="X[0] <= 0.5\ngini = 0.5\nsamples = 2\nvalue = [1, 1]"] ;
226 -> 227 ;
228 [label="gini = 0.0\nsamples = 1\nvalue = [0, 1]"] ;
227 -> 228 ;
229 [label="gini = 0.0\nsamples = 1\nvalue = [1, 0]"] ;
227 -> 229 ;
230 [label="gini = 0.0\nsamples = 1\nvalue = [0, 1]"] ;
226 -> 230 ;
231 [label="gini = 0.0\nsamples = 1\nvalue = [1, 0]"] ;
221 -> 231 ;
232 [label="gini = 0.0\nsamples = 6\nvalue = [0, 6]"] ;
220 -> 232 ;
233 [label="gini = 0.0\nsamples = 126\nvalue = [0, 126]"] ;
217 -> 233 ;
234 [label="X[1] <= 11.45\ngini = 0.027\nsamples = 1485\nvalue = [20, 1465]"] ;
148 -> 234 ;
235 [label="gini = 0.0\nsamples = 2\nvalue = [2, 0]"] ;
234 -> 235 ;
236 [label="X[6] <= 0.5\ngini = 0.024\nsamples = 1483\nvalue = [18, 1465]"] ;
234 -> 236 ;
237 [label="X[5] <= 0.5\ngini = 0.163\nsamples = 190\nvalue = [17, 173]"] ;
236 -> 237 ;
238 [label="X[2] <= 6.35\ngini = 0.46\nsamples = 39\nvalue = [14, 25]"] ;
237 -> 238 ;
239 [label="X[1] <= 14.3\ngini = 0.499\nsamples = 29\nvalue = [14, 15]"] ;
238 -> 239 ;
240 [label="X[2] <= 5.55\ngini = 0.493\nsamples = 25\nvalue = [14, 11]"] ;
239 -> 240 ;
241 [label="X[2] <= 5.15\ngini = 0.375\nsamples = 8\nvalue = [6, 2]"] ;
240 -> 241 ;
242 [label="X[1] <= 12.3\ngini = 0.5\nsamples = 4\nvalue = [2, 2]"] ;
241 -> 242 ;
243 [label="gini = 0.0\nsamples = 1\nvalue = [0, 1]"] ;
242 -> 243 ;
244 [label="X[0] <= 0.5\ngini = 0.444\nsamples = 3\nvalue = [2, 1]"] ;
242 -> 244 ;
245 [label="gini = 0.0\nsamples = 1\nvalue = [1, 0]"] ;
244 -> 245 ;
246 [label="X[1] <= 13.55\ngini = 0.5\nsamples = 2\nvalue = [1, 1]"] ;
244 -> 246 ;
247 [label="gini = 0.0\nsamples = 1\nvalue = [0, 1]"] ;
246 -> 247 ;
248 [label="gini = 0.0\nsamples = 1\nvalue = [1, 0]"] ;
246 -> 248 ;
249 [label="gini = 0.0\nsamples = 4\nvalue = [4, 0]"] ;
241 -> 249 ;
250 [label="X[2] <= 6.25\ngini = 0.498\nsamples = 17\nvalue = [8, 9]"] ;
240 -> 250 ;
251 [label="X[1] <= 13.45\ngini = 0.473\nsamples = 13\nvalue = [5, 8]"] ;
250 -> 251 ;
252 [label="X[2] <= 6.05\ngini = 0.496\nsamples = 11\nvalue = [5, 6]"] ;
251 -> 252 ;
253 [label="X[2] <= 5.85\ngini = 0.49\nsamples = 7\nvalue = [4, 3]"] ;
252 -> 253 ;
254 [label="X[1] <= 12.85\ngini = 0.48\nsamples = 5\nvalue = [2, 3]"] ;
253 -> 254 ;
255 [label="X[1] <= 12.0\ngini = 0.444\nsamples = 3\nvalue = [2, 1]"] ;
254 -> 255 ;
256 [label="gini = 0.0\nsamples = 1\nvalue = [1, 0]"] ;
255 -> 256 ;
257 [label="X[1] <= 12.45\ngini = 0.5\nsamples = 2\nvalue = [1, 1]"] ;
255 -> 257 ;
258 [label="gini = 0.0\nsamples = 1\nvalue = [0, 1]"] ;
257 -> 258 ;
259 [label="gini = 0.0\nsamples = 1\nvalue = [1, 0]"] ;
257 -> 259 ;
260 [label="gini = 0.0\nsamples = 2\nvalue = [0, 2]"] ;
254 -> 260 ;
261 [label="gini = 0.0\nsamples = 2\nvalue = [2, 0]"] ;
253 -> 261 ;
262 [label="X[1] <= 12.05\ngini = 0.375\nsamples = 4\nvalue = [1, 3]"] ;
252 -> 262 ;
263 [label="gini = 0.0\nsamples = 2\nvalue = [0, 2]"] ;
262 -> 263 ;
264 [label="X[2] <= 6.15\ngini = 0.5\nsamples = 2\nvalue = [1, 1]"] ;
262 -> 264 ;
265 [label="gini = 0.0\nsamples = 1\nvalue = [0, 1]"] ;
264 -> 265 ;
266 [label="gini = 0.0\nsamples = 1\nvalue = [1, 0]"] ;
264 -> 266 ;
267 [label="gini = 0.0\nsamples = 2\nvalue = [0, 2]"] ;
251 -> 267 ;
268 [label="X[1] <= 13.6\ngini = 0.375\nsamples = 4\nvalue = [3, 1]"] ;
250 -> 268 ;
269 [label="gini = 0.0\nsamples = 2\nvalue = [2, 0]"] ;
268 -> 269 ;
270 [label="X[1] <= 13.95\ngini = 0.5\nsamples = 2\nvalue = [1, 1]"] ;
268 -> 270 ;
271 [label="gini = 0.0\nsamples = 1\nvalue = [0, 1]"] ;
270 -> 271 ;
272 [label="gini = 0.0\nsamples = 1\nvalue = [1, 0]"] ;
270 -> 272 ;
273 [label="gini = 0.0\nsamples = 4\nvalue = [0, 4]"] ;
239 -> 273 ;
274 [label="gini = 0.0\nsamples = 10\nvalue = [0, 10]"] ;
238 -> 274 ;
275 [label="X[1] <= 11.55\ngini = 0.039\nsamples = 151\nvalue = [3, 148]"] ;
237 -> 275 ;
276 [label="X[2] <= 6.0\ngini = 0.32\nsamples = 5\nvalue = [1, 4]"] ;
275 -> 276 ;
277 [label="X[2] <= 5.55\ngini = 0.5\nsamples = 2\nvalue = [1, 1]"] ;
276 -> 277 ;
278 [label="gini = 0.0\nsamples = 1\nvalue = [0, 1]"] ;
277 -> 278 ;
279 [label="gini = 0.0\nsamples = 1\nvalue = [1, 0]"] ;
277 -> 279 ;
280 [label="gini = 0.0\nsamples = 3\nvalue = [0, 3]"] ;
276 -> 280 ;
281 [label="X[2] <= 5.15\ngini = 0.027\nsamples = 146\nvalue = [2, 144]"] ;
275 -> 281 ;
282 [label="X[1] <= 13.5\ngini = 0.18\nsamples = 10\nvalue = [1, 9]"] ;
281 -> 282 ;
283 [label="gini = 0.0\nsamples = 6\nvalue = [0, 6]"] ;
282 -> 283 ;
284 [label="X[1] <= 13.85\ngini = 0.375\nsamples = 4\nvalue = [1, 3]"] ;
282 -> 284 ;
285 [label="gini = 0.0\nsamples = 1\nvalue = [1, 0]"] ;
284 -> 285 ;
286 [label="gini = 0.0\nsamples = 3\nvalue = [0, 3]"] ;
284 -> 286 ;
287 [label="X[1] <= 12.05\ngini = 0.015\nsamples = 136\nvalue = [1, 135]"] ;
281 -> 287 ;
288 [label="X[2] <= 5.75\ngini = 0.083\nsamples = 23\nvalue = [1, 22]"] ;
287 -> 288 ;
289 [label="X[2] <= 5.65\ngini = 0.32\nsamples = 5\nvalue = [1, 4]"] ;
288 -> 289 ;
290 [label="gini = 0.0\nsamples = 4\nvalue = [0, 4]"] ;
289 -> 290 ;
291 [label="gini = 0.0\nsamples = 1\nvalue = [1, 0]"] ;
289 -> 291 ;
292 [label="gini = 0.0\nsamples = 18\nvalue = [0, 18]"] ;
288 -> 292 ;
293 [label="gini = 0.0\nsamples = 113\nvalue = [0, 113]"] ;
287 -> 293 ;
294 [label="X[5] <= 0.5\ngini = 0.002\nsamples = 1293\nvalue = [1, 1292]"] ;
236 -> 294 ;
295 [label="X[1] <= 12.75\ngini = 0.011\nsamples = 178\nvalue = [1, 177]"] ;
294 -> 295 ;
296 [label="X[1] <= 12.65\ngini = 0.032\nsamples = 62\nvalue = [1, 61]"] ;
295 -> 296 ;
297 [label="gini = 0.0\nsamples = 57\nvalue = [0, 57]"] ;
296 -> 297 ;
298 [label="X[2] <= 6.0\ngini = 0.32\nsamples = 5\nvalue = [1, 4]"] ;
296 -> 298 ;
299 [label="gini = 0.0\nsamples = 1\nvalue = [1, 0]"] ;
298 -> 299 ;
300 [label="gini = 0.0\nsamples = 4\nvalue = [0, 4]"] ;
298 -> 300 ;
301 [label="gini = 0.0\nsamples = 116\nvalue = [0, 116]"] ;
295 -> 301 ;
302 [label="gini = 0.0\nsamples = 1115\nvalue = [0, 1115]"] ;
294 -> 302 ;
}
